function [y1] = myNeuralNetworkFunction(x1)
%MYNEURALNETWORKFUNCTION neural network simulation function.
%
% Generated by Neural Network Toolbox function genFunction, 25-Jun-2016 17:23:05.
%
% [y1] = myNeuralNetworkFunction(x1) takes these arguments:
%   x = 49xQ matrix, input #1
% and returns:
%   y = 1xQ matrix, output #1
% where Q is the number of samples.

%#ok<*RPMT0>

% ===== NEURAL NETWORK CONSTANTS =====

% Input 1
x1_step1_xoffset = [0;0;0;0;0;0;0;0;0;0;0;0;0;0;0;0;0;0;0;0;0;0;0;0;0;0;0;0;0;0;0;0;0;0;0;0;0;0;0;0;0;0;0;0;0;0;0;0;0];
x1_step1_gain = [2;3.18204261901414;53.2549875890363;38.3677571283007;65.2125709111684;33.4662714502339;2.33139829000815;3.31241319262902;7.8179527385899;52.6396014808667;34.0654491793232;53.0813701004507;57.1674210650813;2;20.8085725993679;17.2933445644481;10.0699945766624;16.6853499784693;33.2753500666646;39.4698350438674;38.9375154929263;34.1026751956453;25.9591570114876;16.2672964499633;3.29958116654805;16.4882160493306;25.2788505685129;32.3914688071543;21.4983214492665;41.1135010105923;30.4592681790259;21.3558758028359;25.8130928114936;2.00398115032567;54.9348143137864;7.74624466429007;61.8520571257318;48.0000802060559;33.1217170527437;51.0391651899608;54.2039475844435;55.0062652693822;2.0001252701083;67.8936550581879;42.9650354024309;37.3284713654317;36.2356957340978;65.5143464546461;2];
x1_step1_ymin = -1;

% Layer 1
b1 = [-1.4228752026406659;-1.3780564453915414;-1.1053886342956891;1.2984370898171793;0.80306181741812332;1.3549533601431702;-1.2742568190323627;-0.64842715993783495;0.016949745626693644;0.013068166279936726;-0.053645310366922577;0.18232341521942413;-0.10899282837708291;-0.37448134030737729;1.0991506479255657;-0.81193221351876943;-0.79379141515532559;1.2917980724159186;-1.3116762719856327;1.3698502825245389];
IW1_1 = [-0.14294439696621025 -0.089994490948791556 -0.21654792871324485 -0.26346220526540742 0.53183918420488618 0.52054135442220206 0.43614306733350794 -0.6267809713983028 -0.54861222759145312 0.57880056960884729 1.0530765666993114 0.76438296726559796 0.047757102707402257 -0.51685364766298414 -0.023827113076889804 0.21581333366630245 -0.13378324780084164 0.54244488022254411 0.27435305014185352 0.042140039656301885 0.20517864773199654 0.17968277293158688 1.4370843332604333 -0.72904937796672575 -0.36107520160247525 -0.8049715879092586 1.5491228632514566 0.94753855642940066 0.028781837911488653 0.69615513969061327 -0.37103957314964769 0.16665447907795053 -0.072243008585099633 -0.26660265983756959 0.85627490036439557 -0.4249761127997207 -0.25619249049150994 0.87878156795756746 0.58403143986277584 1.4240257483204917 -0.26932311169973439 -0.40152043315846891 -0.22189515303889007 0.67987922231143227 0.21700639449786163 -0.87539578879506263 1.1781966170305862 0.14553729203420673 0.26454005158415222;0.3444780216459874 -0.21122014692759769 0.32044025131689041 0.092819406004339161 0.73411532726719886 0.4695009173364082 -0.1571159003171089 -0.2987620912439784 0.25959482443580373 0.0776748121729431 0.088530711417222047 0.41625869064540166 0.063483108062267452 0.27359482899627491 0.044782427990123157 0.14116768340393118 0.26695752902093123 -0.21184666979565239 0.030242111935182951 -0.18958257405087942 -0.14177094225119252 -0.10293357381518463 -0.29943023944579206 -0.37318140261975913 0.052147177903671911 0.069079860378133656 -0.24701799309237674 -0.28278812439228951 0.16369926236571783 0.10073679391040558 -0.014459769305702863 -0.094037766464348804 -0.03598103283449719 -0.15250950712684672 -0.61831763214868141 0.29610270805143762 0.18609802832898825 0.24062620844787522 0.28533538238589884 0.94943053081139617 -0.090434119643853977 0.10377521092548 0.47155552271110024 0.21643602545738702 0.13856854454044396 0.26174010262673475 0.39322811493895365 0.72426612222090836 -0.319453539187251;0.27033393895795882 -0.19553782782730283 0.41647959574727722 0.2998977038653623 0.095337543553840609 -0.17002426469070134 0.2622703615115719 0.0049887628381425925 -0.20967187549540123 -0.071404368611583141 -0.27199711528581638 0.032601139919713244 -0.048335246951957789 0.0098221920613125423 0.10941373843806458 0.11497595352871218 0.046862253313556805 0.21137872246891135 -0.077413401248818708 -0.19693318316622838 -0.38681530405906983 -0.30112557458003597 0.13183459753762888 0.11181805950476352 -0.38651262016243937 -0.15857683753893131 0.15017153077839265 0.20484498402739351 0.27902415037817485 -0.39520385818151416 -0.20348317659621279 -0.092076919562090118 -0.15526867286930665 0.28788845380927919 0.29456829754319169 -0.057690392993186096 0.023195056598326973 -0.44371436020374505 0.25708818419638707 -0.05789648701593901 0.19771954286831875 0.28368420560931801 -0.45204902950722126 -0.053306516498122486 -0.055149632350538491 -0.23499824986998336 0.18194703214451544 0.41778584149446224 0.20018087779329022;-0.547814167916026 -0.1331948836041216 -0.23829815403908167 -0.016901033049457094 -0.12395019025981949 0.09405139464100358 -0.01751318920608606 -0.60099754977538589 -0.12177017158555532 -0.05734666056815374 0.14297538943370289 0.28404620380167173 0.2115353042279744 -0.1016253011436013 -0.41342389926917877 -0.11539564769522877 -0.13762400797416027 -0.36762205463159098 -0.23957727708813631 -0.042657565080065567 0.22692406887541203 0.64901607371564229 -0.25231097871947933 -0.15938917038869399 -0.61434760554915102 -0.39258352306926336 -0.11709416473575379 0.7118523738631175 0.50553413815742543 -0.36212849925903373 -0.91226892591702535 -0.20157301778242698 -0.453976248816715 -0.28912986168792359 0.25388447044531037 0.037577490088100546 0.090448050405271652 0.1391396742811393 0.30670501803225625 -0.50718778023567601 -0.033033450285675205 0.2690654185126759 -0.0057361785760441618 -0.048433334549880136 0.08945219493064252 0.68728525841026122 -0.22142716135953641 0.28081001590202659 -0.26216418376220102;-0.76250545113644863 -0.40924246530158892 -0.22009473811505603 -1.9397140077414787 0.5524088954956643 -0.71071717641389032 0.85444689910732408 -0.198365220958514 -0.30668615427972273 1.341744990635465 -0.26792508192077047 1.0598552639532934 0.39941948515688391 -0.041220812391996417 0.44353114160200408 0.98534049935824142 0.15282358053208792 -0.1487881807696271 0.17807351282223013 0.20092223406526585 -1.707649407798687 -0.0065211339524469418 0.92921046155172538 0.29502900066377713 0.69754813662837811 0.19339372261816706 0.78910660956935919 -2.3343166176531982 0.65712019832994151 1.1598442041089332 0.42651916429917131 0.572468697793174 -0.96707228226914244 0.045401787931696781 -0.3503045132249154 -0.18095229684112399 1.0204921063895795 0.25865992395041948 -0.053327676691327985 1.6240468265509671 0.67089702241977245 -0.63448498416650645 0.26368930605171681 0.34593194584442571 0.38712560536789853 -2.1277766103015301 1.2691154906209721 -0.32310816291656763 0.4840122416252482;0.35677638637692416 -0.051598978049212527 -3.3967147212503384 2.9059645169847328 -3.2263626988463896 3.327778819674919 0.096374741322952193 0.40680262897539832 0.47598888194967542 3.1776887921921557 -2.2697678468614817 -0.77207842932645665 -0.35784394913212758 0.42760247249708883 -0.96904122445333063 -0.5986332547357176 1.3317907785753598 -1.7127543622423018 3.5101350483318412 0.36420124772409412 -3.3910450064581181 3.2090257294195341 -4.7924928972171328 1.0847467455621007 -1.3721276737869863 2.536189368126601 -3.9966980348309296 2.6164818677297719 -1.9072458878916103 1.2352172244922592 4.1297674943089344 -2.0544784866495958 7.6628522196207234 0.24530299204531145 -4.4487033592260552 -0.24264252538392803 -0.05758235455333531 0.021136945965378066 -4.2935196487682443 1.5826481965985926 0.44454886589223952 1.5155391922488251 0.012400952235801916 2.1745507907596737 -3.4925778882330718 1.807549458797604 -4.2190784803923655 0.57513898660684148 -0.35704674348687199;1.0266519747880847 1.0998626007166696 7.9279526851386519 -0.21533254874427921 7.5360692191148644 3.1053720943776408 0.77891374001071123 1.1505117852383968 0.60808137631915926 4.4626397276563097 -1.5038045426777842 1.6775621300096384 -0.28183839847902936 1.1054713267895115 2.716320369392808 1.5157890848500628 1.4340807637743624 -3.1248301409717452 -2.4545829145820686 -0.067678738931510385 2.5747258485779425 -1.8517205722921795 -1.2016921667373639 -0.66792024422678387 -1.5656956029763982 -1.9165275810189157 -2.2676180505636592 -3.3086058204330731 1.6316776906079002 1.285425119630901 -0.50017566016312331 -4.330894721552176 0.86230161041892284 0.90346421555139145 -0.30225428988489583 1.0129959615258719 -1.9012110531167397 3.1047292662155126 -0.88526004642999767 2.5754625588341855 -0.98337748009696901 0.80368616744861399 0.56871368922169319 1.0114176264704422 4.5646652458402803 -0.3220251488095634 4.4255776824968471 5.5085141480535151 0.83930408155760339;0.44119497848525102 0.29445925201488055 -0.66761337652285269 -0.38222278213544469 0.083592358857266985 0.24070744613788367 0.085517137865646034 -0.14827139059725211 -0.22433982735919994 -0.30843748933505838 -0.16992832823114093 -0.057791243693581983 0.014384216776612941 0.33796233309842838 0.45504270901595117 0.27392918555534596 0.026338518785522336 0.1172986529979065 0.26644779410917241 0.26424447149076458 0.16766730305266744 -0.182938429446346 -0.1856915318222295 0.16795191229156384 0.42676527921004703 0.91012659070948876 0.30293746097162927 0.16262562806822614 -0.19036559362446526 0.020950676127766844 -0.38874684663444142 0.28058963223921873 0.23876802319152404 0.013121450874410899 -0.34511536017754468 0.19862428940798574 -0.030039709289788216 0.13362073691991153 0.13883717422521624 0.27625237516070789 -0.25809621251515485 -0.43630479443665066 0.10402440777071284 -0.030899656488310317 -0.26216206517139795 -0.10249686039260865 -0.14035289073903343 -0.10726727067708856 0.074904401364942988;0.34860386442973551 0.14773167784757799 -1.6593292545808993 -2.0087386499424116 -1.3144754275508419 0.62522516056909061 -0.54483067294402554 -0.06362529383080899 -0.03133725246625569 -0.090423114848421582 -0.50007356497880517 -0.24655285189268294 -1.0705419523671411 -0.0029534060256965677 -0.35737497588034017 -0.21755450870415663 0.60774185707602868 0.028588305529651841 0.3085453172315516 0.50277645278416472 -0.95875330282236337 -1.3455447723300644 -1.3520745597384474 1.2038152154315032 1.3993631635738026 1.0303494590097466 -0.78226466525848692 -1.3448171949696015 -0.88421294336002654 -0.61942587422239703 0.31840657729564309 -0.53627863403090847 1.5907905389964374 -0.0059844566406345228 -2.7058449473905428 -0.10745796227493369 -1.096247519551504 0.42244520904470739 -1.1925794473257738 0.26560100678670495 -1.1505456961038507 1.0294114634114147 -0.62888743979441908 0.13340896679596986 -0.40883093277973181 -1.1401200374605078 0.47501379928123716 -0.23574189104749071 -1.2068034410980009;0.12869703896869902 0.11316433866682045 0.75962273387870838 0.40955797956306739 0.068181134500267318 0.108474506265927 -0.041159647073579449 -0.24065151228016193 -0.32304670638665584 0.5645157713822111 1.065169737609859 0.35118763053507029 0.32251715129466585 -0.18476426373528826 0.20027322658612781 -0.39063481128406402 -0.49249374378225119 0.01079649869160627 -0.53027803939553853 -0.47391527267875749 -0.06065451627873078 0.46243968620072712 0.55556220513076904 -0.33581469576028172 0.054290304453462536 -0.14765002700501884 0.46758187933528306 0.21790428729708336 0.17590552030873496 -0.084433293091966719 -0.39234090631863011 0.09212084931922232 -0.7090452980913462 0.22806136147495351 1.0224292845906566 -0.1390707109659414 0.79137801444856626 0.15056674867384656 0.61006713992647577 0.29950131511384842 -0.42506869622950483 -0.7028505822683857 0.16849641483409317 -0.36721086203354508 0.1715901765986852 0.5513670851558321 0.20139467479919032 -0.066124108719791325 -0.29925803334480128;0.39176881777585643 0.21948312970979433 -1.6021792305349007 -1.2130094276547279 -0.41423876900410928 -0.33071752765131468 0.075450324734504748 -0.16955142746631177 0.048816571648878683 -1.1794193877239629 -0.32377269218512345 0.23925615403763395 0.55451430889871622 0.252388074267898 -0.15613742331785405 -0.29940825877364891 0.0060688073455000408 0.43194666447316582 0.32332871258543239 -0.63469364852931742 -0.86322753877017522 -1.0310851764211053 -0.61133443304126878 0.71549215644217024 0.20592732379276579 1.2765915684958999 -0.21079407306235931 -1.1884464788270666 -0.075627717815072146 -0.62923372188355253 0.45478106764069814 0.91552231102861015 0.12798075816151033 -0.021329893799427384 -0.75904776447948175 0.33687964986843766 0.92573668549686317 -0.20400104264383945 -0.77614348179601333 -0.56773580702927751 -0.31439469777592571 0.47684170081485422 -0.17452790101303836 0.14961634728524498 -0.56956917371290383 -1.0892691012606144 0.019302025992976948 0.3789610728324127 0.13309218068608086;0.49709822081640609 0.29167337786657338 -0.019453153646542133 -2.2929792759612155 0.32634690856906701 -0.48732016967389891 -0.74378203502969298 0.60273489585345896 0.35805308907203487 0.92814285536737329 0.30834874452501154 0.66208838754887511 0.3186256847218128 -0.24140142556461114 0.61857773633072144 -0.10878404830010839 -0.32439306764552178 0.1368990526841429 0.060135266400665202 0.048957571570372796 -1.0982265342768749 -0.8599210224114382 1.9770085297433782 0.17941398830743902 0.54236513370900252 -0.12905464567166169 0.21310762679504194 -2.3471437310158292 0.39114235474826053 0.96308707764570922 0.2825909360466296 0.012264874172941987 -0.59985340214550986 -0.20475069481655456 0.15258510610056511 -0.13302695803979395 1.2631065156860806 0.20034697504127993 0.73992664650302831 1.1260722893355601 0.64019365955674601 -0.9677809903401664 0.26885340201730867 0.17328874420370649 0.11742407618810949 -1.3944550818271684 0.91274132714740286 -0.16266000818787404 -0.75479805694713908;-0.59021814319179555 -0.23591040991365578 0.56684229645968665 -1.5156786324352578 0.76188804973399882 1.4030847696744395 -0.73916455277826287 0.10439794676453243 0.95608213238342199 -0.48366317092292777 1.8841801213690181 -0.94450238379698381 1.4052111105275975 -0.0083140951537456105 1.0607012353236467 3.2265449478337693 -0.011138054297152459 2.4997406490694729 -2.9003768954523612 0.39253218504650983 1.6257446861053941 -0.59429547422988027 2.230646612264032 -1.4126550625375167 0.12858794032143619 -1.7990455357867368 -0.13169132837987849 0.52329664801298847 -0.72750204692050224 3.1538630582349274 -1.5827585622535989 2.7605865530130456 -1.67816485027549 -0.36310712364934367 0.94191355572029845 -0.97305895423414401 0.74057911182378833 -0.93733230004724433 2.5067291336555275 -1.7166192199207624 0.60394862177018127 -1.935377889579285 -0.74010305546075494 0.085688005250442262 0.17784466572278435 1.1664128981577846 2.3889963161157595 2.4124941551166055 -0.86359159557049048;-0.64822629574613932 -0.55099291388937166 -1.8741816503956592 -1.3565976002769531 -1.0558961486621368 -0.88536123740517791 0.22047430613580588 -0.29459374959527129 -1.0693962220302551 -4.1961101566371957 -1.3248059754276518 -2.7946651017501103 0.63857204288365654 -0.55754186664748651 -4.5264885083901776 -3.5288338078351469 -2.7815636037545093 1.7358405823065943 -1.4113618242594579 -1.6054506727240059 -5.3720562233665312 -2.3077690792755869 2.6385536819773749 5.2250823471474774 3.3000038823216653 4.7666879936265349 2.8592176343120168 -0.70109415434719302 -2.0063241540285581 -1.6524201313601667 -0.09731837064795533 2.2827481760772108 -5.7848405105529723 -0.72192654939301171 -4.152459111466472 -0.58594812507073235 0.29837028017063782 -3.3471532452348463 -1.2130588004552849 -3.1387979554166319 0.54123596784455541 -2.5010387183586062 -0.29274868118552833 -2.3171716585850515 -0.90863577026952591 0.3050159168235147 0.70828546052630947 0.081236930411372421 1.1041988444302293;-0.45091487378678752 0.28135680975277183 0.2119679648385262 0.28136762723240599 -4.3264807039706126 1.9973614762698184 -1.4052515568954915 -0.46228348366781247 -0.92480972331637834 -6.1635951330543337 -3.7882239141770064 -0.23252288187312536 0.080434445101080734 -0.10981716994775984 -2.4544220930894838 -3.151502846378968 -1.7138512918054054 1.4115193328372269 3.8457905799103225 -1.6454414382186957 -4.8289285017489814 0.75845605790388693 -4.5233136078950622 4.0547506120463455 7.4859272050501922 5.6491668517712741 -3.4178573243736325 2.4017610301643084 -3.8941712666553951 -0.54314279632117057 5.0650965229805074 3.9238054446589752 -1.172296398697122 -0.39855146031669636 -4.8095774291217621 -2.1164762355146798 -0.68166429829545239 1.9007173403332633 -0.89682920132191601 -2.863323266218694 -4.1625086535417495 -0.034940126948193546 -0.87170895384386859 -1.0922048040368435 -4.7220409898607771 -1.7713998515611638 -2.3079620023502092 2.5968084212424212 -2.3036642648922707;0.0024740183406095125 0.25559368978073072 0.3435821522550489 1.9328768469026496 0.73380208062440611 0.11112368758070028 -0.31863922970715503 0.13916245294053373 0.50368869118093607 0.37397322214802592 1.5280078259198591 0.75802404801915946 0.26803297352355449 -0.029695664275130242 0.057816719535920214 -0.48250170953217097 -0.37742838878532148 -1.0349191899294514 0.15955096749950917 -0.25340970633540527 0.95327313657739632 0.58686120192637259 0.48164803866852118 -0.55124219454626489 -0.23375932818487588 -0.21946019084056625 0.41404028358513012 1.3655411016610133 0.54302173133837095 0.41983540288674642 0.19471406674181671 -1.4308027239930114 0.044246699332060026 -0.33432033726573129 0.54942666681635366 -0.34098440279424697 0.23307689314586238 0.059926100701014194 0.51187085589069459 0.40125937982842946 0.31679621923166013 0.54559798746733579 -0.0271486379290263 0.034001360179975834 0.37507789968862015 1.4078010758001898 -0.18298065006319689 -0.23868460411757625 -0.33031936485391855;-0.27663826576076861 -0.40374083747729395 0.3987098569838084 0.19427388797664183 0.11694189319830407 -0.25031561329819862 0.22696572361346223 -0.20977089575194263 -0.41603323079070437 -0.28284288943022773 -0.27588703015201682 0.36048742459074773 -0.10897779544860599 0.2524401867510308 0.27087715470322554 0.12203308921148528 -0.25039608984900052 -0.31002670539291044 -0.25421966232777621 -0.55770747000457244 0.67591565213020721 0.58276832099489095 -0.36893673043304709 0.45846839523112848 -0.086982522108703622 0.24862414701576366 0.18412081931523255 -0.070638231239765051 -0.066673909806915732 -0.59203180288513402 -0.40529849664383183 0.055279424012067604 0.039491672311183092 0.34898854821930608 0.47969198462010726 -0.31713151943563384 0.087706924243581993 0.0062023209867599341 -0.28687055476444828 -0.10736224035472884 -0.6973792431639555 -0.32545928823224413 0.38218726549730614 0.0071901094672904902 0.41207594859109836 -0.64455290106236507 0.88911493856745782 -0.27470688081810013 0.15574054039436336;0.07436135413122992 0.055635877727339265 -0.035206723924442039 -0.1691424835481922 -0.11447498814134399 -0.26930736233226304 -0.098135141018279817 -0.1845969165062942 -0.21436978581518648 0.26389076339674089 0.042525098341554081 0.064775069564233401 0.33645010813980036 0.20874679944297667 -0.0053011349680932547 -0.39932959038619764 -0.35282279181604853 -0.26147920481002579 -0.30748754731767103 -0.32699755030448119 -0.53625514835161825 -0.24325986425841484 -0.23229870472259231 -0.21092159423714102 0.1811143226614543 0.2391778701692516 -0.0010602771523964124 -0.23605267673552838 0.1548375977023615 0.22616287987368824 0.055902808793637633 -0.11776235950833974 -0.093544060443598226 -0.15241248553904888 0.0063233131710860478 -0.23693026873531053 0.38648187871944184 -0.23283264853394312 -0.2279894158386423 0.20317278148209159 0.15687866618954449 0.095077735639900546 -0.43006627840885531 0.0543525148934694 -0.13592549269341517 -0.016121905918748292 -0.37359526557843875 -0.36323545163858134 0.14947154632955298;-0.32115389034388858 -0.47862256841819806 -1.1498027183887418 -0.99433931853704816 0.099529271703423156 0.34920190993899536 -0.60256458243833266 -0.28602475115760695 -0.31859808964233416 1.0292692846445353 -1.0011587855925232 0.47610211042146949 0.27474490947153574 0.35442551369408049 -0.18018777003043596 0.0049203706447754668 0.29565992994635459 0.24501879774235533 0.81202984842139192 0.82609869866615893 -0.96081999755042391 0.64753617758024073 0.4261687448585158 0.075056302467821287 0.82477193129095205 0.1897967486554375 -0.23393212637194674 -0.047443485446888527 -0.38251249386066982 0.56532586913163951 0.98709284971632394 0.36597897956322101 0.27053060414611713 0.29832430663341664 -1.8818612150278573 0.075316413019986039 -0.071130770813102748 0.27607213125874475 -1.0895648236604147 0.94112594272232175 1.9252606419904343 0.96520675277574552 -0.0082295502476978349 0.13168697427516776 0.28760131076247347 -0.60353494243940875 0.25236523356171359 -0.48912544050577345 -0.52602139448783414;-0.42767928808976152 -0.8430496138767628 -2.0515859216193792 -2.7477839709762097 -2.6828145709922726 0.40933075486101961 0.92386385873205179 -0.47611795472525442 -0.2923863602330995 1.4405644835457234 0.45455047635881768 0.42122409446173315 1.6873671200826592 -0.85359259395921927 -1.6288939712252535 -0.27584547041228835 -0.14504488800773577 2.2549967932834938 1.147389147184819 -1.1464514378581978 -2.5981576273012656 -0.63242938613399069 1.7838713055701161 1.5360042789347397 3.0877966099455074 -0.1961813990298264 -0.32367133984585367 -1.9454615373600919 -0.6209708524450831 -0.086722154256190412 1.1512624165082193 1.3257773784037568 -3.3948280698969504 -0.010985781999819675 -1.5209080167654516 -1.1709565619395674 1.2995600572880597 -1.1796270846998784 -0.50971618243528793 0.68618133475895327 3.8142465886884009 -1.1901231635467713 0.44887885778685105 0.21996416825419646 -0.20562595293848768 -0.52287026355172628 1.6986828953528046 -1.3085570261482722 0.7986132191884151];

% Layer 2
b2 = 0.80351960370436748;
LW2_1 = [1.657783455115071 0.69459158783178565 -0.4177840854202558 1.2350787997715285 2.9754580908881731 -3.1043893650395447 -0.97149912104580061 0.33682335438423594 -4.5464230960728189 -0.79035674377827869 -0.38410327683052281 -3.1633479999884035 -3.5580971503693548 8.4160127620295455 -12.092769398293136 -2.5261619563513427 -1.3320491477959029 0.32488246541643317 -0.85903281480188332 2.7986970375379991];

% Output 1
y1_step1_ymin = -1;
y1_step1_gain = 0.285774029223085;
y1_step1_xoffset = 0.000338411902567004;

% ===== SIMULATION ========

% Dimensions
Q = size(x1,2); % samples

% Input 1
xp1 = mapminmax_apply(x1,x1_step1_gain,x1_step1_xoffset,x1_step1_ymin);

% Layer 1
a1 = tansig_apply(repmat(b1,1,Q) + IW1_1*xp1);

% Layer 2
a2 = repmat(b2,1,Q) + LW2_1*a1;

% Output 1
y1 = mapminmax_reverse(a2,y1_step1_gain,y1_step1_xoffset,y1_step1_ymin);
end

% ===== MODULE FUNCTIONS ========

% Map Minimum and Maximum Input Processing Function
function y = mapminmax_apply(x,settings_gain,settings_xoffset,settings_ymin)
y = bsxfun(@minus,x,settings_xoffset);
y = bsxfun(@times,y,settings_gain);
y = bsxfun(@plus,y,settings_ymin);
end

% Sigmoid Symmetric Transfer Function
function a = tansig_apply(n)
a = 2 ./ (1 + exp(-2*n)) - 1;
end

% Map Minimum and Maximum Output Reverse-Processing Function
function x = mapminmax_reverse(y,settings_gain,settings_xoffset,settings_ymin)
x = bsxfun(@minus,y,settings_ymin);
x = bsxfun(@rdivide,x,settings_gain);
x = bsxfun(@plus,x,settings_xoffset);
end
